-2.44858025
0.29094575
-2.00705074
-0.18186517
0.54219066
0.3588487
-1.36478018
0.72704398
1.08411283
-0.12484081
-0.79996171
0.30194583
1.33923254
0.07700556
-2.43005057
0.16039431
-1.7350789
1.19601904
-1.20074923
0.74408695
1.15671666
0.18695884
-1.01984441
0.26557538
0.38333815
0.0414949
1.53327996
-0.68234528
1.33407098
-0.44989758
0.56054977
-0.47740608
-0.29629441
0.09537217
-1.1993945
0.42727634
-0.7476087
0.41266017
-0.48201329
-0.40142082
0.37911691
-0.09331255
-0.30852359
-0.70697265
-0.56256176
-0.28676882
0.00553292
0.02544501
-0.07391748
0.05340962
0.63694924
0.12093675
-0.11434248
-0.37094361
-0.24881863
-0.34452355
-0.12494813
-0.34660178
-0.4440996
-0.24493874
-0.37996813
0.27906672
-0.22410581
-0.3662739
-0.61131798
-0.40481191
-0.02659867
0.06432381
0.33142042
0.77586668
0.46326699
0.02074792
-0.39533176
-0.87100289
0.17966493
-0.38299659
0.21591377
0.99850078
-0.19764939
0.42905896
0.01448762
-0.28271779
1.1170478
0.53838088
0.34814262
0.52383472
0.18778841
-0.76657313
-0.03055734
-0.2233345
-0.39008508
0.51681194
0.70039441
-0.59359305
-0.7651671
-0.09716265
-0.68304704
-0.09494693
0.40613488
0.01346989
-0.19088056
0.01848106
0.21289918
0.32098782
0.28045522
0.47953441
0.7111091
0.44689821
0.42376353
-0.53764433
-0.01849551
-0.17286114
-0.19186138
0.37246987
-0.08013769
-0.16773451
-0.07076906
-0.33462896
0.2218877
0.04070645
-0.16055923
0.39725784
-0.32214691
0.23311329
0.01444303
-0.15935554
-0.05188922
0.27448315
0.1148329
-0.29800619
0.20690081
-0.21335712
0.11693746
-0.09404136
-0.11072222
0.25441
0.26370695
0.26694367
0.17718251
-0.30498197
-0.29544153
0.27968839
-0.05702246
-0.22939674
0.23030518
-0.14701416
0.41593046
-0.42415714
-0.10989985
-0.0305711
0.06847921
-0.2372075
-0.40275897
0.09389757
-0.21002607
0.18583523
-0.09587888
0.07720861
0.05951805
0.35440184
-0.25991468
-0.37398003
-0.03266513
-0.50773727
-0.12042345
-0.10192519
-0.11413645
-0.25571869
0.37744677
1.105328
1.17023512
-0.64192919
0.56935757
-0.66778649
0.29459748
-0.65817503
1.32450285
0.8360322
0.24937164
-0.84283919
0.44469391
-0.22887832
-0.70961324
-0.79740101
0.19224621
-0.19728542
0.40481102
-0.813013
0.02449857
-0.08500802
-0.12245757
-0.03058548
-0.00083883
0.49390869
-0.15634042
-0.22867981
0.57560268
0.6722683
0.32829101
0.34527047
-0.48574181
0.240699
-0.42924402
-0.50679779
0.48804198
-0.05795579
0.35285009
0.01467722
0.16588037
-0.26125505
0.24900826
-0.07101088
0.13098327
-0.30269973
-0.02572927
-0.30217281
-0.55906132
0.28982526
-0.30648606
0.38531352
0.57421846
-0.15267866
0.2926578
-0.21183836
-0.48539876
-0.07408528
0.31432495
0.38891773
0.07661836
-0.13480375
-0.47551674
-0.00989425
0.18442843
0.603166
0.42884852
0.45309891
-0.36424597
0.28082164
0.41114245
-0.29231937
-0.13777259
-0.38097644
0.24622324
0.15874939
-0.18705635
-0.78994614
-0.59356875
0.22994796
-0.23765672
0.09267156
-0.45768085
0.64890669
-0.87008024
-0.460216
-0.11837446
0.53716203
-0.4021068
0.28601625
0.14855302
0.24575
0.00044535
-0.21416574
-0.70938671
0.27503665
-0.5111236
-0.37037864
-0.01795572
0.06034256
0.46261269
-0.32032989
0.41469261
-0.2393796
0.24862529
-0.27189268
-0.1176033
-0.0028214
-0.08422344
0.09734211
-0.07860201
0.34878421
-0.42656726
-0.06435758
-0.21152064
0.30558793
-0.12644534
-0.10701779
-0.5003024
-0.17748287
-0.3213993
0.26911399
-0.21087651
-0.30265569
-0.23716894
-0.06767239
-0.06286361
-0.44078092
0.0858618
0.12494169
-0.07553457
-0.17741332
-0.14252992
-0.00038275
-0.13749217
-0.09825949
-0.19631166
-0.25296377
-0.04518749
0.17560722
0.40853706
0.40244522
0.08464956
-0.4294241
-0.10695941
-0.48861303
-0.39435688
-0.07238822
-0.09830549
0.1807072
-0.11756784
0.04151105
-0.1188199
-0.83920407
-0.00621649
-0.20207162
-0.68379044
-0.01105896
-0.27974952
-0.1580427
-0.85051642
-0.50230118
-0.05525042
0.12831956
-0.06680666
0.00866983
0.63859171
0.56728256
0.21001718
0.01201191
-0.38236773
-0.62058669
0.12975275
-0.23845174
-0.12261878
0.41760581
0.39443031
-0.14715611
0.23993918
0.86605482
0.11016306
-0.52866635
-0.09857648
0.08328769
-0.19447596
0.36184457
-0.14473167
0.91565623
0.2473352
-0.4419427
-0.11577909
-0.6128763
0.44989985
0.41281155
0.27267277
0.42685565
-0.34418743
-0.25621813
0.11799966
0.37110315
0.46974246
0.49049905
-0.42917373
0.01318455
0.00175434
-0.39388413
0.46772607
-0.03425257
-0.48041291
-0.03628796
0.45653367
-0.17047386
-0.24119907
-0.12400204
-0.04629667
0.12417318
-0.08192841
0.07002156
-0.45115244
0.38648326
0.33963546
0.21367654
-0.47679423
-0.35373249
0.39717923
-1.13997149
0.27077146
-0.38496711
0.52388689
-0.4567996
-0.12818781
-0.66506967
-0.23904298
-0.15587639
-0.13675559
0.39321481
0.63575578
0.1317074
-0.81206985
-0.37689003
-0.03496792
0.26511608
0.11514492
-0.3218664
0.08584948
-0.08430968
-0.01589563
-0.32492125
-0.4295922
0.0050002
0.00435715
0.27624406
-0.27251092
-0.08789812
0.47488183
0.01376498
0.20562807
0.44197278
-0.1124666
0.07206781
0.06558632
0.46747372
0.16355157
-0.26869569
0.19045668
0.34417775
0.10942702
-0.60712221
-0.29003495
-0.34804686
0.42527077
0.15452312
0.66733529
-0.00143627
-0.87337345
-1.0342106
0.54783569
-0.09973601
0.2947069
-0.44960804
0.29025078
-0.2635246
0.50395933
-0.43509402
-0.11868646
-0.16057709
-0.28887664
-0.23681791
0.28751458
-1.02297479
0.11224585
0.16101023
-0.55571561
-0.09977866
0.36709106
-0.46769008
-0.29452424
-0.00321574
-0.14794821
-0.25593721
-0.27207136
-0.68056926
-0.32882675
-0.1367702
0.21905292
-0.26403186
0.68185516
-0.59189744
-0.60618554
-0.18175493
-0.08718556
-0.71279665
0.13488507
0.20127073
-0.43934208
-0.49739907
-0.42146829
0.31961536
0.53320172
0.35510802
-0.07673463
-0.04453372
-0.03803187
-1.2526633
0.1635264
0.21989366
0.21322166
-0.58673622
-0.35578219
0.10666005
0.31256499
-0.11560808
-0.2818509
0.11075468
-0.39995573
-0.42817141
0.08674674
-0.304555
-0.33138384
-0.33647315
-0.45698895
0.29487272
-0.08468328
-0.53081954
0.4833041
-0.91161613
-0.28017824
-0.41927511
0.43808463
2.00791353
-0.3266249
-0.1304312
1.01335718
-1.20877253
-0.44487586
-0.1063897
0.36957912
0.16675771
0.46786223
0.39153889
-0.2443218
-0.0486994
-0.24216124
-0.0909635
0.09159324
-0.21382753
0.73583609
0.31838968
-0.43250819
0.29241693
-0.06715983
-0.50755757
-0.30579795
-0.27037325
0.13731205
-0.00744517
-0.83722311
-1.08395024
1.32689765
-0.48346997
0.32009905
-0.26732171
0.38816819
0.55451482
0.47322421
-0.51883697
-0.02334094
0.23672166
-0.00320398
0.00467667
-0.38506053
0.46324897
0.44863045
0.23952326
0.10118981
0.08562566
-0.17154671
0.14274823
0.14776582
-0.42350309
1.34675256
-0.06260493
0.33573452
0.30360998
-1.29820777
-0.04127164
-0.32244633
0.41691178
0.42643287
-1.06592488
-0.76798247
0.24816872
0.22254688
-0.42175167
-0.25049437
-0.14530863
0.14682462
0.00403387
0.28454222
-0.0376936
-0.59503187
-0.27996961
-0.57423962
-0.56358212
-0.16375381
0.49439784
-0.46799586
-0.29793448
-1.28972824
-0.09406465
0.32098043
-0.64026037
0.76006447
-1.41354809
-0.32843897
0.04758101
0.16301177
0.71870692
1.44036723
-0.18325334
0.00902923
0.20623692
0.04932457
-0.49232633
0.13142235
0.54877015
0.00537342
0.66918459
-0.9301494
-0.23915875
-0.1607748
0.27788897
0.11549469
-0.39036339
-0.25112499
0.22771572
0.41151971
0.00914496
-0.02538901
0.16049067
0.25948034
-0.09375046
-0.14737164
0.22788139
0.12541639
-1.82153076
-0.97368384
-0.52941499
-1.34307422
-0.34842406
0.05419903
0.26195613
-0.42637585
-0.4144332
-0.61518884
0.42035363
-0.25879416
-0.24710592
0.05572416
-0.50998561
0.15102301
0.00615508
1.08861347
0.82875927
-0.04369466
-0.20305996
-0.19700595
0.53918066
-0.0282988
-0.06183199
-0.14324656
0.02798816
0.20671999
-0.23306926
0.32905753
0.16174396
-0.27087084
0.10427532
-0.22198166
-0.27169667
-0.73208764
0.18263396
-0.25066706
0.18664897
0.17176924
-0.36623608
2.0008883
-0.10005945
0.49277798
-0.33116243
-0.30148363
-0.46627184
0.25613017
-0.5254287
-0.51235595
0.51961187
-0.31625982
0.03508584
-0.20389672
-0.2854546
0.19596377
0.06340654
0.39024394
-0.1767366
-0.5282445
0.71186068
0.00708472
1.41724168
0.33013757
-0.03098265
-0.45330351
0.65693878
-0.40875704
0.62535224
-0.08457034
0.13602354
0.5471843
0.65378076
0.19474497
0.36262021
-0.41676562
-0.56449011
-0.30207153
0.23214936
-0.63187228
-0.3222808
0.17046759
-0.14257037
0.34489797
0.40182561
0.44965188
0.23770496
0.09675801
-0.05303141
-0.21259829
-0.15680093
-0.23944954
0.05929408
0.07424425
-0.38383181
-0.27928553
-0.0279865
-0.26235571
-0.15639148
0.29492804
0.10540951
-0.33308646
-0.10732757
-0.16959116
0.38402006
0.50777077
0.12766086
0.32097699
0.337357
0.66388707
-0.18516816
-0.02929602
0.08894199
0.22913308
-0.07172654
0.55559862
-0.03172031
-0.14769235
-0.22851446
-0.08802677
-0.31142338
0.23297114
0.23044974
-0.26909943
-0.17084657
-0.07896166
-0.44737065
0.43318907
0.25229959
-0.23129568
0.25116184
0.1568237
0.16694997
-0.46305053
0.24377433
0.05199786
0.07017585
-0.19002101
0.00604128
-2.02403278
-0.62408229
1.17636058
-0.42889986
-0.10897278
-0.24441231
-0.68725007
0.77523264
0.40519566
-0.63756917
-0.08746801
-0.4292762
-0.05674062
-0.29745072
0.1018215
-0.3409838
0.07235321
-0.0467262
0.03324943
-0.01244789
-0.019124
0.32392146
-0.07634793
0.53295104
0.29049202
0.29212081
0.08687446
-0.49675415
0.04701964
-0.03135596
0.48502964
0.08489627
0.00043766
1.30141091
0.60100454
-0.71679729
0.38116723
-0.07455187
-0.33228151
0.2602873
0.23368899
-0.25450687
-0.07857859
-0.20672205
0.36671288
-0.16680259
0.25719747
0.26886856
0.3209019
-0.41822567
0.38652979
1.23325783
-0.66425486
0.31570801
0.87280109
-0.74556723
0.04002188
1.41168816
-0.71945123
0.14970914
0.06456372
-0.16186279
0.50736529
0.55230867
-0.18101999
-0.38426357
-0.1204999
-0.10774614
-0.12213486
0.03508993
-0.24367821
0.54594495
0.02075988
0.28609878
0.12277407
0.3068415
0.27236276
0.66402992
-0.08298402
0.33343488
-0.75273126
-0.66034299
0.42870832
0.3069741
0.06594657
0.5582855
-0.45281052
0.01558535
-0.38548732
0.06557763
-0.24313225
0.95461584
0.26231614
-0.29659704
-0.89508824
-0.08132605
1.71386617
-1.0674315
-0.42973451
-0.59401471
0.34152604
0.17372275
0.24225779
-0.21548781
1.485132
1.16141864
-0.30374615
-0.03740813
0.45306247
0.7162627
0.40650512
0.44340598
0.19005596
-0.29715192
0.59120557
-0.42544615
-0.08651303
-0.17970688
-0.13085277
0.46599177
0.01196776
-0.3334552
0.05851764
-0.32191866
0.35397972
-0.31516662
0.36790198
